Language model created by QuickLM on Wed Jul 27 03:50:01 EDT 2016
Copyright (c) 1996-2010 Carnegie Mellon University and Alexander I. Rudnicky

The model is in standard ARPA format, designed by Doug Paul while he was at MITRE.

The code that was used to produce this language model is available in Open Source.
Please visit http://www.speech.cs.cmu.edu/tools/ for more information

The (fixed) discount mass is 0.5. The backoffs are computed using the ratio method.
This model based on a corpus of 11 sentences and 13 words

\data\
ngram 1=13
ngram 2=22
ngram 3=15

\1-grams:
-0.8278 </s> -0.3010
-0.8278 <s> -0.2171
-1.8692 BACKWARD -0.2311
-1.8692 CONTINUE -0.2891
-1.8692 FASTER -0.2311
-1.5682 LEFT -0.2311
-1.8692 PAUSE -0.2891
-1.5682 RIGHT -0.2311
-1.5682 ROTATE -0.2769
-1.8692 SLOWER -0.2311
-1.5682 SPEECH -0.2311
-1.8692 STOP -0.2311
-1.8692 STRAIGHT -0.2311

\2-grams:
-1.3424 <s> BACKWARD 0.0000
-1.3424 <s> CONTINUE 0.0000
-1.3424 <s> FASTER 0.0000
-1.3424 <s> LEFT 0.0000
-1.3424 <s> PAUSE 0.0000
-1.3424 <s> RIGHT 0.0000
-1.0414 <s> ROTATE 0.0000
-1.3424 <s> SLOWER 0.0000
-1.3424 <s> STOP 0.0000
-1.3424 <s> STRAIGHT 0.0000
-0.3010 BACKWARD </s> -0.3010
-0.3010 CONTINUE SPEECH 0.0000
-0.3010 FASTER </s> -0.3010
-0.3010 LEFT </s> -0.3010
-0.3010 PAUSE SPEECH 0.0000
-0.3010 RIGHT </s> -0.3010
-0.6021 ROTATE LEFT 0.0000
-0.6021 ROTATE RIGHT 0.0000
-0.3010 SLOWER </s> -0.3010
-0.3010 SPEECH </s> -0.3010
-0.3010 STOP </s> -0.3010
-0.3010 STRAIGHT </s> -0.3010

\3-grams:
-0.3010 <s> BACKWARD </s>
-0.3010 <s> CONTINUE SPEECH
-0.3010 <s> FASTER </s>
-0.3010 <s> LEFT </s>
-0.3010 <s> PAUSE SPEECH
-0.3010 <s> RIGHT </s>
-0.6021 <s> ROTATE LEFT
-0.6021 <s> ROTATE RIGHT
-0.3010 <s> SLOWER </s>
-0.3010 <s> STOP </s>
-0.3010 <s> STRAIGHT </s>
-0.3010 CONTINUE SPEECH </s>
-0.3010 PAUSE SPEECH </s>
-0.3010 ROTATE LEFT </s>
-0.3010 ROTATE RIGHT </s>

\end\
